4 128
0 -0.033104803 -0.11115463 0.06267888 -0.1706151 -0.09908777 0.042483546 -0.004385241 0.03890195 -0.112085775 -0.01804111 0.07518084 0.013840344 0.05304515 -0.10562342 0.06144963 -0.16643947 0.10723514 -0.016214034 -0.05431424 -0.080917425 -0.06837443 -0.049183622 0.045245886 0.0781187 -0.13698258 -0.0406385 0.022984147 -0.024825836 -0.0019160159 -0.072776854 0.0731214 0.05842948 -0.09024671 0.050245132 0.012907124 -0.06732851 0.083911024 -0.0075953403 0.16424066 -0.12908337 -0.08806769 -0.085126564 -0.003173011 0.11223382 -0.09140035 0.057054143 -0.066379435 -0.11750522 -0.067361414 0.06252706 -0.052883178 -0.08167915 -0.08850414 0.009497191 -0.17826982 -0.04490205 -0.073067985 0.23785764 -0.22478953 0.18515158 -0.050067686 -0.081859216 -0.041187353 0.05459014 -0.047212925 -0.03853179 0.0155919315 -0.122144386 -0.1707317 -0.018303595 -0.09598211 0.03513397 0.18172738 0.085383825 0.016474152 -0.05099273 0.08862378 -0.08170381 0.05418124 -0.084518075 0.008380254 -0.10569085 0.042154413 0.0737249 -0.055148814 0.101905644 -0.04000904 -0.053205356 0.12804002 -0.041839592 0.0070783105 0.20588903 0.019238664 -0.14726177 -0.1514166 0.08478455 -0.1382905 0.0018956225 0.121238835 0.023942148 0.03307476 -0.07991547 0.14896177 -0.009229933 0.021327162 0.06309683 0.23022172 0.22138351 0.07775232 0.10022855 -0.15357634 0.059461333 0.054803636 -0.08872345 -0.1794575 -0.12117249 0.07161283 0.00062524347 -0.11771305 -0.008144669 -0.17622465 -0.03675201 -0.108344205 -0.12512034 -0.10868171 0.10116796 0.08725717 0.098781504
3 -0.036715083 -0.10751006 0.06728382 -0.16668557 -0.09617224 0.04193325 0.0005001582 0.039065573 -0.11937102 -0.020650458 0.07665223 0.009479164 0.045959778 -0.11186402 0.057099737 -0.1698207 0.11073759 -0.019725075 -0.055430073 -0.08340044 -0.072858036 -0.045082103 0.04429172 0.0832355 -0.12948313 -0.043493204 0.021182057 -0.019619372 0.0065407827 -0.06391768 0.07021706 0.05195583 -0.0967206 0.05755737 0.009220198 -0.07000097 0.08539919 -0.004453431 0.16408856 -0.12299556 -0.08387897 -0.08880127 -0.0006859856 0.11565721 -0.094321966 0.054647602 -0.061178323 -0.121019855 -0.07305968 0.06491719 -0.044789653 -0.08521798 -0.09269406 0.012745393 -0.18135995 -0.048661523 -0.07397951 0.23709032 -0.22509252 0.19039038 -0.05731991 -0.07543195 -0.042364024 0.058665246 -0.04625183 -0.040968277 0.021149011 -0.1164654 -0.16726302 -0.024208048 -0.090272896 0.03613746 0.17561488 0.0883556 0.01871938 -0.051260978 0.09404881 -0.0826721 0.060077596 -0.08476343 0.0067218235 -0.09962763 0.0372002 0.06948743 -0.04984912 0.105319805 -0.04012235 -0.050309185 0.12274273 -0.044336036 0.00485771 0.20750466 0.016733792 -0.1456241 -0.1569439 0.08884586 -0.1430236 0.0070419656 0.12356828 0.025484452 0.027981017 -0.07832657 0.14078823 -0.013035892 0.023644 0.06688361 0.22715726 0.2184037 0.08044564 0.09501207 -0.14757927 0.059597332 0.056038402 -0.087258436 -0.17609087 -0.115810215 0.06897151 0.0052359765 -0.110966064 -0.0077484595 -0.17727771 -0.043732945 -0.10790433 -0.12631015 -0.11063663 0.10173604 0.09018211 0.10015176
1 -0.038074743 -0.113381915 0.06755369 -0.16943333 -0.09321742 0.035195474 -0.0035889852 0.04301421 -0.10687471 -0.017953532 0.06917679 0.012014484 0.054099523 -0.10743055 0.05528014 -0.16721442 0.10773491 -0.018451847 -0.047354154 -0.08242924 -0.06476766 -0.04701838 0.04592601 0.07919779 -0.13102567 -0.03873665 0.025107969 -0.016993754 0.003435429 -0.07137464 0.06539661 0.05832767 -0.090785764 0.05305158 0.0077370685 -0.06994071 0.075947985 -0.010519405 0.16565455 -0.1305425 -0.08812371 -0.08711715 0.0021642405 0.113088034 -0.09236563 0.05028484 -0.06774549 -0.11471196 -0.060606867 0.065437496 -0.054373372 -0.075963855 -0.08847085 0.017385554 -0.18057698 -0.043200035 -0.07088567 0.23765488 -0.22344328 0.18508212 -0.048206612 -0.08321623 -0.045027304 0.05283547 -0.050582923 -0.03516577 0.017464245 -0.1149307 -0.17176253 -0.019519586 -0.09233401 0.028489472 0.18191314 0.083173245 0.011812584 -0.052221276 0.092452094 -0.08405568 0.057726122 -0.08835302 0.0046826103 -0.10724616 0.038885135 0.06612046 -0.054064926 0.0959122 -0.041368894 -0.052051034 0.12870963 -0.04083527 0.007980845 0.20211656 0.01893364 -0.14441444 -0.15086281 0.08225157 -0.13661154 -0.0018666908 0.12226836 0.027034665 0.027960572 -0.0737741 0.14691672 -0.012885488 0.02462736 0.06649984 0.22873409 0.21895228 0.072457485 0.0978354 -0.15111035 0.055154916 0.055704292 -0.08093424 -0.17730491 -0.119760364 0.074045606 0.0052330196 -0.11858688 -0.011340303 -0.17256819 -0.034338254 -0.10973264 -0.12230004 -0.10739936 0.097432315 0.0850704 0.09772386
2 -0.03055004 -0.10811307 0.062083308 -0.16443741 -0.093706906 0.037855648 -0.0012360896 0.04224656 -0.11087904 -0.01822494 0.0682011 0.014649168 0.05330905 -0.106302135 0.05494399 -0.16455819 0.10114038 -0.014261786 -0.05002121 -0.079155326 -0.06369346 -0.04467644 0.04740745 0.075754486 -0.13197324 -0.039567124 0.020571588 -0.019140555 0.0048395745 -0.06642202 0.07018729 0.053397153 -0.09197947 0.05464154 0.0054036416 -0.06319059 0.07800127 -0.012012109 0.16058359 -0.12545153 -0.08192975 -0.07974156 0.0019422043 0.107837364 -0.091769286 0.050510805 -0.06651125 -0.113663964 -0.06048866 0.059103426 -0.049502946 -0.08065331 -0.08336472 0.017908048 -0.17781681 -0.04299273 -0.06631902 0.23288843 -0.21850166 0.1832649 -0.05115775 -0.07585109 -0.042214077 0.048438065 -0.0482402 -0.031709403 0.015306652 -0.11560281 -0.16869575 -0.02081773 -0.09131937 0.030001398 0.1782872 0.08075218 0.012117038 -0.046230793 0.089399375 -0.081892885 0.05559347 -0.08446457 0.0036144108 -0.10428305 0.034174092 0.06770948 -0.048613753 0.09982295 -0.040114444 -0.050858088 0.12703232 -0.043336224 0.0093672825 0.20035404 0.01809871 -0.14508721 -0.15093315 0.08216955 -0.1347468 -0.0016563047 0.11410739 0.028358221 0.032385223 -0.076787554 0.1435762 -0.015892964 0.0217288 0.05836338 0.22540104 0.2160567 0.069097206 0.09552948 -0.14942363 0.057395525 0.055388384 -0.08366934 -0.17482626 -0.1162777 0.07109199 0.0052820314 -0.11646758 -0.010824183 -0.1695265 -0.037552778 -0.10306285 -0.12367228 -0.10211498 0.097843796 0.088206716 0.09505643
