4 128
0 -0.07102238 -0.0985522 0.09353759 -0.15389936 -0.08021909 0.035194732 0.009274207 0.031763818 -0.12664565 -0.027920198 0.087422304 -0.017746542 0.013094192 -0.12615122 0.04383818 -0.17364168 0.13912006 -0.045926414 -0.053384222 -0.095162064 -0.09300678 -0.036301505 0.02779321 0.10724152 -0.08898179 -0.049627066 0.027044583 0.0005585378 0.025954485 -0.043189965 0.042171627 0.04024982 -0.10597569 0.06955682 0.011166391 -0.097045645 0.0855523 0.019979952 0.16326164 -0.1026625 -0.08287448 -0.121385396 0.0019669035 0.13688527 -0.09615584 0.04824286 -0.035627555 -0.13008633 -0.099186435 0.08916349 -0.024466451 -0.07905464 -0.12059333 0.00969158 -0.18060514 -0.061965905 -0.09180079 0.22643608 -0.22282794 0.19722463 -0.070848145 -0.06909247 -0.047915645 0.089879714 -0.041333485 -0.06615642 0.04757926 -0.088157594 -0.14459303 -0.03815229 -0.06633301 0.04028188 0.14482465 0.10391696 0.031933263 -0.069658674 0.111974955 -0.082252994 0.080514066 -0.086038716 0.00957707 -0.073004864 0.0376366 0.049397152 -0.04699172 0.10001343 -0.038969126 -0.03938019 0.0925238 -0.040398207 -0.012143017 0.20316477 0.008494041 -0.123449415 -0.1617119 0.0994548 -0.15616009 0.03249725 0.15139228 0.018245112 -0.0067163776 -0.05969301 0.10802525 -0.008537025 0.037314065 0.1034593 0.20425117 0.19654587 0.10472349 0.075979464 -0.11663843 0.050574448 0.05438312 -0.07190556 -0.15542874 -0.097118415 0.058563277 0.015935844 -0.077725425 -0.0022531913 -0.17941535 -0.057527263 -0.11932672 -0.11502398 -0.13000685 0.096326075 0.08180926 0.10693328
3 -0.07339645 -0.09482136 0.09586464 -0.14881627 -0.07644656 0.033663467 0.012236196 0.03139318 -0.12873569 -0.029199686 0.086879544 -0.020939313 0.007882041 -0.12832563 0.03987909 -0.17306082 0.13991164 -0.048196267 -0.052690577 -0.09558099 -0.094540454 -0.032996606 0.026336817 0.109336235 -0.08167851 -0.050560698 0.025928862 0.004648269 0.031316556 -0.03674367 0.038484596 0.035574347 -0.108350694 0.07319982 0.008638405 -0.09810446 0.084583126 0.022056429 0.1607267 -0.097067885 -0.07919454 -0.122777395 0.0037705444 0.13745913 -0.09645507 0.04550136 -0.03139299 -0.13019459 -0.10130744 0.09011202 -0.018938212 -0.07928675 -0.12201138 0.011786008 -0.17970237 -0.06346643 -0.091341205 0.2221627 -0.21941462 0.19737893 -0.07419083 -0.06426469 -0.04826765 0.09170249 -0.040206973 -0.06711877 0.05096902 -0.082212225 -0.13973744 -0.041441116 -0.06107266 0.03994504 0.13815045 0.10436591 0.032846373 -0.06940872 0.11414955 -0.081672505 0.083502814 -0.085138045 0.008346891 -0.067683876 0.034053992 0.045106284 -0.043101452 0.099862985 -0.03848307 -0.036706705 0.087165 -0.041003603 -0.013706059 0.20057796 0.0066577555 -0.11972816 -0.16247894 0.100410596 -0.15676038 0.035498466 0.15134567 0.018802278 -0.010942632 -0.05688535 0.10054328 -0.010651664 0.03870318 0.105408065 0.19854015 0.1909756 0.10508696 0.07108825 -0.11029082 0.049311403 0.05425076 -0.06898241 -0.1503277 -0.09189174 0.055982906 0.01894232 -0.07168761 -0.0020189572 -0.17709063 -0.060894497 -0.11769709 -0.11338891 -0.12965876 0.0947567 0.08180349 0.10621728
1 -0.07646043 -0.10185404 0.09948351 -0.15501739 -0.076110266 0.029208947 0.010532623 0.036115043 -0.124600634 -0.028446004 0.08335017 -0.019707782 0.014011342 -0.13021103 0.03868761 -0.17736849 0.14166923 -0.04862423 -0.048086297 -0.0980981 -0.09136613 -0.03460577 0.02900861 0.11006483 -0.084830336 -0.048898637 0.029092852 0.007887378 0.03180914 -0.041963812 0.035991147 0.04026741 -0.10868205 0.07378966 0.006231298 -0.10077587 0.07985695 0.017595187 0.16709176 -0.10525199 -0.08377841 -0.124954574 0.0070512746 0.13982841 -0.098825015 0.042720627 -0.03726631 -0.1298358 -0.09483314 0.093055025 -0.025638923 -0.075617 -0.12245451 0.017379727 -0.18586977 -0.06159319 -0.09107376 0.22988705 -0.22516958 0.2007134 -0.07085107 -0.07079698 -0.052174278 0.08963737 -0.045000836 -0.064004995 0.050194018 -0.082857095 -0.14777784 -0.040269516 -0.06383883 0.034950085 0.14709198 0.103617705 0.028250642 -0.07158712 0.11749037 -0.08577922 0.08529143 -0.09085734 0.006156048 -0.07532291 0.03471884 0.043161154 -0.046211537 0.09662477 -0.040839516 -0.038813885 0.09448946 -0.04046233 -0.011483025 0.20318407 0.008210835 -0.12299192 -0.1642723 0.098995395 -0.15739256 0.029754646 0.15449287 0.021613842 -0.011434879 -0.055207465 0.107506394 -0.012466813 0.040911585 0.10797096 0.20614243 0.19745572 0.101475716 0.07474482 -0.11608338 0.047637075 0.05621111 -0.06608231 -0.15588482 -0.09707894 0.061558567 0.020681327 -0.07953437 -0.005222954 -0.17899938 -0.05678809 -0.12221339 -0.11459194 -0.13078044 0.09460916 0.08157281 0.10769101
2 -0.06918309 -0.097285405 0.09412965 -0.1511123 -0.07734488 0.032306205 0.012443011 0.035201248 -0.12867913 -0.02865698 0.08304712 -0.016983116 0.013587645 -0.12910172 0.039144468 -0.17519371 0.13576552 -0.04455447 -0.051138535 -0.09511787 -0.09067447 -0.032894112 0.030457485 0.106865235 -0.08674246 -0.049803987 0.024914013 0.0051040696 0.03239874 -0.03803488 0.041223496 0.036143936 -0.1097393 0.07490989 0.004645015 -0.09449965 0.08248563 0.016323956 0.16278017 -0.10103149 -0.07848713 -0.118164636 0.0063582673 0.13514027 -0.09834098 0.043657586 -0.036383994 -0.12926531 -0.095204584 0.08713408 -0.0214929 -0.080409154 -0.117877826 0.017182503 -0.18352512 -0.0615163 -0.08722223 0.22618116 -0.22131939 0.19935073 -0.07356285 -0.06440074 -0.049385026 0.085753664 -0.042764246 -0.06111538 0.04793521 -0.08451146 -0.14545386 -0.041208617 -0.06362252 0.036879614 0.14443745 0.10168764 0.028840803 -0.066148035 0.11445883 -0.08380435 0.083017245 -0.087228775 0.005534245 -0.072977446 0.030938419 0.045509208 -0.041637484 0.100782566 -0.039690975 -0.03804484 0.09341451 -0.042840723 -0.010191024 0.2023226 0.0076057343 -0.12424757 -0.164573 0.09918558 -0.15600492 0.030055905 0.14719512 0.022599755 -0.00675776 -0.05867249 0.10526634 -0.014833163 0.03799526 0.10032184 0.20389943 0.19565725 0.098908044 0.073250316 -0.11532148 0.050149035 0.0559527 -0.069433756 -0.15435235 -0.094496116 0.058953512 0.020227173 -0.078063875 -0.0045481157 -0.1769067 -0.05975668 -0.11631231 -0.11633097 -0.12626156 0.09550026 0.084719576 0.10553867
