4 128
0 -0.11984479 -0.1009665 0.1380965 -0.1337397 -0.034181423 -0.010760815 0.023179974 0.050682534 -0.10613265 -0.033431217 0.059206422 -0.04669441 -0.005863537 -0.14801458 -0.0032324265 -0.18037279 0.15820326 -0.07530901 -0.013138554 -0.11080717 -0.08626496 -0.014636986 0.021347336 0.12941995 -0.024571985 -0.044141155 0.039916128 0.060802314 0.0745638 -0.014566668 -0.020144876 0.026240159 -0.11856435 0.09790394 -0.02086537 -0.12725896 0.040625863 0.019342808 0.16777842 -0.09212896 -0.07702268 -0.1516287 0.035983905 0.15409483 -0.10380893 0.0033189002 -0.023832638 -0.12037462 -0.078966916 0.11941975 -0.013494165 -0.045590453 -0.13741645 0.05568188 -0.1931311 -0.062138956 -0.08832152 0.21482061 -0.21038514 0.20224126 -0.07356351 -0.06574026 -0.072914235 0.09918384 -0.056048114 -0.061911352 0.07702825 -0.025011629 -0.13225654 -0.057709023 -0.026029615 0.00525743 0.12072127 0.100904115 0.014358782 -0.08550635 0.14664797 -0.09482868 0.11595524 -0.107115455 -0.011600851 -0.060189895 0.013804494 -0.009428973 -0.03323122 0.06494521 -0.04545911 -0.023418784 0.07319228 -0.03438719 -0.01816016 0.17755285 -0.00029275712 -0.09166523 -0.16379449 0.093128845 -0.1556838 0.029448047 0.17178659 0.033047263 -0.059172567 -0.012368617 0.06885919 -0.030415105 0.06494053 0.1442499 0.17691314 0.16465695 0.08866954 0.045721326 -0.078086756 0.020650527 0.0588548 -0.01694161 -0.12609659 -0.07206445 0.063062444 0.052016582 -0.056744505 -0.016924791 -0.15779261 -0.05722868 -0.13075632 -0.09219884 -0.13280834 0.07118899 0.06643572 0.104077056
3 -0.1220453 -0.09540026 0.1404776 -0.12561966 -0.028087476 -0.013773524 0.027348742 0.050744846 -0.10776736 -0.034896605 0.056754395 -0.050416395 -0.012260819 -0.15022106 -0.009583806 -0.17848672 0.15741427 -0.0775631 -0.011130832 -0.1105683 -0.08678984 -0.009556195 0.019821674 0.13106321 -0.014165061 -0.04481792 0.03802149 0.06698051 0.082325265 -0.005278497 -0.02554398 0.019401124 -0.12128126 0.10287277 -0.025459627 -0.12739177 0.03781461 0.020951558 0.16323929 -0.08413375 -0.07100232 -0.15181707 0.03920064 0.15335847 -0.10378861 -0.0015768087 -0.018507319 -0.119132295 -0.07973282 0.11958888 -0.00600972 -0.045200337 -0.13764727 0.059853293 -0.19109847 -0.06330527 -0.08606151 0.20757176 -0.20395423 0.20112622 -0.077481076 -0.05842529 -0.073365174 0.09984974 -0.054708123 -0.06148787 0.0809404 -0.01597921 -0.12524132 -0.06203181 -0.018345926 0.0036076598 0.11120493 0.1000776 0.014459519 -0.08402971 0.14897837 -0.093789585 0.11954773 -0.10564816 -0.014077684 -0.0530758 0.0077351555 -0.016153736 -0.027036652 0.06378839 -0.04471479 -0.019502698 0.065991834 -0.035181556 -0.019594084 0.17232361 -0.002798354 -0.08605115 -0.16384803 0.09330176 -0.154991 0.032270085 0.16973175 0.034487724 -0.064545356 -0.0079580005 0.058143053 -0.03422741 0.066595055 0.14535196 0.16801141 0.15585813 0.086959064 0.03845943 -0.06893433 0.018403888 0.05854686 -0.011954273 -0.118204564 -0.06427033 0.059558813 0.056546465 -0.048743997 -0.017163515 -0.15279551 -0.06118043 -0.12725186 -0.08931719 -0.13054642 0.068127476 0.06615744 0.101989016
2 -0.11548712 -0.09699617 0.13617839 -0.12820107 -0.031229235 -0.0123734 0.026716035 0.052747242 -0.10854201 -0.034048717 0.05489951 -0.045393817 -0.006459583 -0.1492431 -0.0076444154 -0.17935555 0.15241231 -0.072685264 -0.011989183 -0.10898818 -0.0836654 -0.010584223 0.02355725 0.12739772 -0.021809349 -0.044357873 0.03633189 0.06391066 0.08038956 -0.007830214 -0.01979796 0.020525793 -0.12141789 0.10248949 -0.027015047 -0.12233057 0.038386103 0.016133327 0.16418299 -0.0877096 -0.07046206 -0.14583705 0.039414242 0.15000477 -0.104639776 -0.00069536926 -0.0232344 -0.11852051 -0.07549727 0.11507442 -0.00866551 -0.047842324 -0.13284966 0.061711192 -0.19302669 -0.061483406 -0.08252129 0.21089199 -0.2055661 0.20189355 -0.07661202 -0.05847972 -0.07271375 0.09405958 -0.055867575 -0.056500707 0.0765744 -0.021243881 -0.13027199 -0.06061816 -0.022571206 0.002936149 0.11737949 0.09769174 0.012024942 -0.08016037 0.14690995 -0.094596565 0.116870806 -0.10591399 -0.015253453 -0.057992436 0.0063521713 -0.012598462 -0.02642605 0.066285774 -0.04523071 -0.021406477 0.07202888 -0.036954895 -0.01627167 0.17463063 -0.0015360916 -0.09127714 -0.16500127 0.09234581 -0.1539153 0.027805336 0.16460548 0.036768947 -0.05801261 -0.011991512 0.0639805 -0.036465004 0.06430052 0.13842335 0.17342274 0.16098753 0.08238571 0.04175166 -0.07497858 0.020674637 0.05955063 -0.015270681 -0.12276412 -0.067565255 0.06159134 0.05551522 -0.055021483 -0.018428722 -0.153327 -0.060098205 -0.1250504 -0.09274513 -0.12713395 0.06990021 0.069247596 0.10125322
1 -0.123779275 -0.10244159 0.14251226 -0.13246658 -0.029187646 -0.01678563 0.02472186 0.054519653 -0.10336545 -0.033756927 0.054191772 -0.048326205 -0.005458014 -0.15069743 -0.0089710355 -0.18193749 0.15862621 -0.07716164 -0.007646276 -0.11238787 -0.083674386 -0.012183498 0.022332143 0.13083749 -0.019308234 -0.043056466 0.04111012 0.06796643 0.08046432 -0.012061905 -0.026322113 0.02508002 -0.12038241 0.10169843 -0.026192887 -0.12926674 0.034335915 0.01675537 0.16919352 -0.09278368 -0.076214254 -0.15318127 0.041016288 0.1550561 -0.10539307 -0.002705411 -0.024719665 -0.11869384 -0.07378736 0.1217039 -0.013587892 -0.04191941 -0.1375442 0.06327934 -0.19610213 -0.06119758 -0.08616584 0.21515732 -0.20969927 0.20345804 -0.07332854 -0.06567358 -0.07631841 0.0976608 -0.058912054 -0.058814652 0.079055525 -0.018673884 -0.13331796 -0.059703026 -0.022522831 -0.00023648802 0.12072569 0.0993168 0.010505038 -0.08603993 0.1506996 -0.09718312 0.11974574 -0.11049867 -0.015227305 -0.061120458 0.009876604 -0.016103001 -0.03120738 0.061005745 -0.046734903 -0.0221943 0.07371136 -0.03433153 -0.017326374 0.17517115 -0.00084202015 -0.08982808 -0.16469634 0.09170347 -0.15512897 0.026609931 0.17241423 0.036328994 -0.063484624 -0.0075325286 0.06649826 -0.034605198 0.06785145 0.14685915 0.17602347 0.16293804 0.08408301 0.04323297 -0.07583663 0.017424438 0.06004893 -0.010634497 -0.12442297 -0.07038939 0.064950526 0.056666203 -0.057179138 -0.01974414 -0.15510757 -0.056432255 -0.13157591 -0.09065637 -0.13166218 0.06848139 0.06569646 0.103406854
